/*!
 * The following copyright notice may not be removed under any circumstances.
 * 
 * Copyright:
 * Copyright (c) 1995, The Font Bureau, Inc. 1995, 1997, 1998.  All rights
 * reserved.
 * 
 * Trademark:
 * The Font Bureau, Inc.
 * 
 * Description:
 * ATF Agency Gothic was designed by M.F. Benton in 1932 as a single titling face.
 * In 1990 David Berlow saw potential in the squared forms of the narrow, monotone
 * capitals. He designed a lowercase and added a bold to produce Font Bureau
 * Agency, an immediate popular hit. Sensing further possibilities, he worked with
 * Tobias Frere-Jones and Jonathan Corum to expand Agency into a major series,
 * offering five weights in five widths for text & display settings.
 * 
 * Manufacturer:
 * The Font Bureau, Inc.
 * 
 * Designer:
 * The Font Bureau, Inc.
 * 
 * Vendor URL:
 * http://www.fontbureau.com
 */
Cufon.registerFont({"w":340,"face":{"font-family":"Agency FB","font-weight":400,"font-stretch":"condensed","units-per-em":"2048","panose-1":"0 1 6 6 4 0 0 4 0 3","ascent":"1638","descent":"-410","bbox":"-31 -1688 1284.02 410","underline-thickness":"102","underline-position":"-209","unicode-range":"U+0020-U+007E"},"glyphs":{" ":{"w":401},"!":{"d":"281,-1565r-31,1213r-92,0r-31,-1213r154,0xm279,0r-150,0r0,-176r150,0r0,176","w":408},"\"":{"d":"530,-1565r-28,492r-88,0r-29,-492r145,0xm244,-1565r-31,492r-86,0r-31,-492r148,0","w":629},"#":{"d":"1016,-1022r-195,0r-84,479r207,0r0,115r-227,0r-76,428r-127,0r78,-428r-242,0r-74,428r-126,0r75,-428r-174,0r0,-115r195,0r84,-479r-207,0r0,-115r227,0r76,-428r127,0r-78,428r242,0r74,-428r127,0r-76,428r174,0r0,115xm696,-1022r-241,0r-84,479r239,0","w":1067},"$":{"d":"483,-1554r91,-3v103,0,155,38,155,113r0,354r-139,0r0,-348r-107,0r0,604r201,244v30,37,45,76,45,117r0,352v0,75,-52,113,-155,113r-91,-2r0,133r-121,0r0,-133r-88,2v-103,0,-155,-38,-155,-113r0,-387r139,0r0,381r104,0r0,-645r-198,-246v-30,-37,-45,-77,-45,-119r0,-307v0,-75,52,-113,155,-113r88,3r0,-134r121,0r0,134xm362,-975r0,-463r-104,0r0,330xm590,-127r0,-375r-107,-129r0,504r107,0","w":850},"%":{"d":"1157,-1556r-860,1556r-115,0r0,-8r861,-1557r114,0r0,9xm1186,-796v50,-2,98,53,98,103r0,591v1,54,-44,102,-98,102r-291,0v-47,2,-96,-55,-96,-102r0,-591v-2,-45,50,-103,96,-103r291,0xm1163,-112r0,-567r-243,0r0,567r243,0xm447,-1565v50,-2,98,53,98,103r0,591v1,54,-44,102,-98,102r-291,0v-47,2,-96,-55,-96,-102r0,-591v-2,-45,50,-103,96,-103r291,0xm424,-881r0,-567r-243,0r0,567r243,0","w":1372},"&":{"d":"629,-1565v64,-1,112,47,112,111r0,328r-139,0r0,-316r-342,0r0,471r141,94r449,0r0,121r-115,0r0,756r-506,0v-64,1,-110,-47,-110,-111r0,-532v0,-45,17,-78,51,-100r117,-76v-62,-40,-164,-78,-164,-170r0,-465v-1,-64,47,-111,110,-111r396,0xm598,-123r0,-633r-199,0r-143,92r0,541r342,0","w":891},"'":{"d":"244,-1565r-31,492r-86,0r-31,-492r148,0"},"(":{"d":"244,-682v0,379,82,601,229,872r0,11r-121,0v-331,-524,-331,-1242,0,-1766r121,0r0,11v-148,272,-229,491,-229,872","w":539},")":{"d":"297,-682v0,-378,-82,-601,-229,-872r0,-11r118,0v331,524,331,1242,0,1766r-118,0r0,-11v148,-272,229,-492,229,-872","w":539},"*":{"d":"715,-1143r-66,109r-207,-154r25,260r-123,0r27,-260r-209,154r-64,-109r240,-102r-240,-105r64,-106r209,151r-27,-260r123,0r-25,260r207,-151r66,106r-240,105","w":813},"+":{"d":"769,-629r-288,0r0,283r-123,0r0,-283r-288,0r0,-116r288,0r0,-283r123,0r0,283r288,0r0,116","w":838},",":{"d":"266,-176r-88,287r-96,0r29,-287r155,0"},"-":{"d":"508,-535r-412,0r0,-124r412,0r0,124","w":604},"\u2010":{"d":"508,-535r-412,0r0,-124r412,0r0,124","w":604},".":{"d":"246,0r-152,0r0,-176r152,0r0,176"},"\/":{"d":"840,-1556r-662,1556r-133,0r0,-8r662,-1557r133,0r0,9","w":885},"0":{"d":"651,-1565v64,-1,113,47,113,111r0,1343v1,64,-49,111,-113,111r-415,0v-64,1,-111,-47,-111,-111r0,-1343v-1,-64,47,-111,111,-111r415,0xm625,-123r0,-1319r-361,0r0,1319r361,0","w":889},"1":{"d":"281,0r-140,0r0,-1085r-61,0r88,-480r113,0r0,1565","w":416},"2":{"d":"594,-1565v64,-1,111,47,111,111r0,332v0,40,-12,86,-37,137r-414,862r453,0r0,123r-621,0r0,-74r479,-995r0,-373r-319,0r0,352r-140,0r0,-364v-1,-64,47,-111,111,-111r377,0","w":799},"3":{"d":"637,-1565v64,-1,111,47,111,111r0,381v0,50,-20,89,-60,117r-186,131r188,131v40,27,60,67,60,119r0,464v1,64,-47,111,-111,111r-403,0v-64,1,-111,-47,-111,-111r0,-397r139,0r0,385r346,0r0,-479r-276,-207r0,-31r274,-204r0,-398r-342,0r0,352r-139,0r0,-364v-1,-64,47,-111,111,-111r399,0","w":864},"4":{"d":"735,-408r-119,0r0,408r-131,0r0,-408r-442,0r0,-71r379,-1086r131,0r0,6r-360,1033r292,0r0,-568r131,0r0,568r119,0r0,118","w":784},"5":{"d":"616,-983v64,-1,111,47,111,111r0,761v1,64,-47,111,-111,111r-385,0v-64,1,-110,-47,-110,-111r0,-397r139,0r0,385r328,0r0,-737r-463,0r18,-705r572,0r0,123r-436,0r-17,459r354,0","w":842},"6":{"d":"635,-862v64,-1,110,46,110,110r0,641v1,64,-46,111,-110,111r-399,0v-64,1,-111,-47,-111,-111r0,-1343v-1,-64,47,-111,111,-111r395,0v64,-1,110,47,110,111r0,346r-139,0r0,-334r-338,0r0,580r371,0xm606,-123r0,-618r-342,0r0,618r342,0","w":868},"7":{"d":"692,-1493r-336,1493r-137,0r326,-1442r-334,0r0,230r-139,0r0,-353r620,0r0,72","w":743},"8":{"d":"641,-1565v64,-1,111,47,111,111r0,442v0,46,-17,80,-52,101r-147,92r149,98v36,23,54,57,54,100r0,510v1,64,-49,111,-113,111r-412,0v-64,1,-110,-47,-110,-111r0,-510v0,-45,17,-78,51,-100r152,-98r-148,-92v-34,-21,-51,-55,-51,-101r0,-442v-1,-64,47,-111,111,-111r405,0xm612,-993r0,-449r-348,0r0,449r174,116xm616,-123r0,-518r-178,-117r-178,117r0,518r356,0","w":883},"9":{"d":"629,-1565v64,-1,110,47,110,111r0,1343v1,64,-46,111,-110,111r-391,0v-64,1,-113,-47,-113,-111r0,-346r139,0r0,334r336,0r0,-579r-371,0v-64,1,-110,-47,-110,-111r0,-641v-1,-64,46,-111,110,-111r400,0xm600,-823r0,-619r-342,0r0,619r342,0","w":868},":":{"d":"246,-676r-152,0r0,-176r152,0r0,176xm246,0r-152,0r0,-176r152,0r0,176"},";":{"d":"246,-676r-152,0r0,-176r152,0r0,176xm252,-176r-90,287r-96,0r28,-287r158,0"},"<":{"d":"584,-242r-6,0r-502,-376r0,-72r508,-379r0,139r-371,275r371,274r0,139","w":698},"=":{"d":"801,-756r-699,0r0,-121r699,0r0,121xm801,-391r-699,0r0,-119r699,0r0,119","w":903},">":{"d":"623,-618r-508,376r0,-139r370,-274r-370,-275r0,-139r8,0r500,379r0,72","w":698},"?":{"d":"575,-1565v65,-1,113,46,113,111r0,352v0,40,-10,76,-31,107r-204,311r0,332r-140,0r0,-299v0,-44,10,-80,29,-109r207,-309r0,-373r-320,0r0,352r-139,0r0,-364v-1,-64,49,-111,113,-111r372,0xm459,0r-152,0r0,-176r152,0r0,176","w":782},"@":{"d":"1030,0r-840,0v-43,0,-65,-22,-65,-66r0,-1433v0,-44,22,-66,65,-66r775,0v43,0,65,22,65,66r0,1087v0,44,-22,66,-65,66r-508,0v-48,0,-72,-23,-72,-70r0,-368v0,-48,24,-72,72,-72r209,0r0,-279r-172,0r0,164r-101,0r0,-184v0,-48,24,-72,72,-72r229,0v48,0,72,24,72,72r0,733r188,0r0,-1073r-753,0r0,1425r829,0r0,70xm666,-436r0,-330r-179,0r0,330r179,0","w":1155},"A":{"d":"756,0r-138,0r-55,-348r-311,0r-55,348r-134,0r279,-1569r137,0xm545,-471r-137,-848r-138,848r275,0","w":819},"B":{"d":"637,-1565v64,-1,111,47,111,111r0,465v2,93,-105,130,-166,170r118,76v35,21,52,55,52,100r0,532v1,64,-47,111,-111,111r-516,0r0,-1565r512,0xm608,-971r0,-471r-344,0r0,565r205,0xm612,-123r0,-541r-141,-92r-207,0r0,633r348,0","w":870},"C":{"d":"639,-1565v64,-1,113,47,113,111r0,364r-140,0r0,-352r-348,0r0,1319r348,0r0,-385r140,0r0,397v1,64,-49,111,-113,111r-403,0v-64,1,-111,-47,-111,-111r0,-1343v-1,-64,47,-111,111,-111r403,0","w":870},"D":{"d":"483,-1565v163,-3,287,120,287,283r0,999v3,162,-125,283,-287,283r-358,0r0,-1565r358,0xm449,-123v106,1,182,-67,182,-174r0,-973v2,-101,-73,-172,-174,-172r-193,0r0,1319r185,0","w":889},"E":{"d":"639,0r-514,0r0,-1565r508,0r0,123r-369,0r0,584r336,0r0,125r-336,0r0,610r375,0r0,123","w":731},"F":{"d":"629,-1442r-365,0r0,594r336,0r0,125r-336,0r0,723r-139,0r0,-1565r504,0r0,123","w":696},"G":{"d":"647,-1565v64,-1,111,47,111,111r0,364r-140,0r0,-352r-354,0r0,1319r354,0r0,-541r-167,0r0,-120r307,0r0,673v1,64,-47,111,-111,111r-411,0v-64,1,-111,-47,-111,-111r0,-1343v-1,-64,47,-111,111,-111r411,0","w":881},"H":{"d":"780,0r-139,0r0,-752r-377,0r0,752r-139,0r0,-1565r139,0r0,688r377,0r0,-688r139,0r0,1565","w":905},"I":{"d":"272,0r-139,0r0,-1565r139,0r0,1565","w":408},"J":{"d":"201,0v-64,1,-111,-47,-111,-111r0,-397r139,0r0,385r308,0r0,-1442r139,0r0,1454v1,64,-47,111,-111,111r-364,0","w":801},"K":{"d":"778,0r-153,0r-361,-752r0,752r-139,0r0,-1565r139,0r0,703r328,-703r151,0r0,9r-354,745","w":788},"L":{"d":"625,0r-500,0r0,-1565r139,0r0,1442r361,0r0,123","w":690},"M":{"d":"899,0r-131,0r0,-991v0,-14,5,-55,14,-123r-256,967r-28,0r-256,-967v9,69,14,110,14,123r0,991r-131,0r0,-1565r129,0r254,1018v1,5,3,20,4,45v0,-10,-1,-25,4,-45r254,-1018r129,0r0,1565","w":1024},"N":{"d":"770,0r-96,0r-418,-1151r0,1151r-131,0r0,-1565r104,0r410,1131r0,-1131r131,0r0,1565","w":895},"O":{"d":"674,-1565v64,-1,112,47,112,111r0,1343v1,64,-48,111,-112,111r-438,0v-64,1,-111,-47,-111,-111r0,-1343v-1,-64,47,-111,111,-111r438,0xm647,-123r0,-1319r-383,0r0,1319r383,0","w":911},"P":{"d":"633,-1565v64,-1,112,47,112,111r0,721v1,64,-48,112,-112,112r-369,0r0,621r-139,0r0,-1565r508,0xm606,-745r0,-697r-342,0r0,697r342,0","w":840},"Q":{"d":"676,-1565v64,-1,110,47,110,111r0,1233r107,86r0,137r-12,0r-103,-84v-12,55,-46,82,-102,82r-440,0v-64,1,-111,-47,-111,-111r0,-1343v-1,-64,47,-111,111,-111r440,0xm647,-123r0,-61r-166,-138r0,-137r13,0r153,127r0,-1110r-383,0r0,1319r383,0","w":922},"R":{"d":"649,-1565v64,-1,111,47,111,111r0,594v8,104,-115,124,-238,110r269,750r-146,0r-291,-838r19,-28r248,0r0,-576r-357,0r0,1442r-139,0r0,-1565r524,0","w":874},"S":{"d":"625,-1565v64,-1,110,47,110,111r0,364r-139,0r0,-352r-338,0r0,330r434,522v29,35,43,74,43,117r0,362v1,64,-46,111,-110,111r-394,0v-64,1,-112,-47,-112,-111r0,-397r139,0r0,385r338,0r0,-373r-432,-522v-30,-36,-45,-76,-45,-119r0,-317v-1,-64,48,-111,112,-111r394,0","w":856},"T":{"d":"664,-1442r-242,0r0,1442r-139,0r0,-1442r-244,0r0,-123r625,0r0,123","w":702},"U":{"d":"236,0v-64,1,-111,-47,-111,-111r0,-1454r139,0r0,1442r371,0r0,-1442r139,0r0,1454v1,64,-48,111,-112,111r-426,0","w":899},"V":{"d":"736,-1565r-271,1569r-131,0r-271,-1569r138,0r194,1246r6,102v1,-23,0,-58,7,-102r194,-1246r134,0","w":799},"W":{"d":"1061,-1565r-213,1569r-113,0r-170,-1180v-1,-21,-2,-51,-4,-92v0,21,2,52,-4,92r-170,1180r-113,0r-213,-1569r138,0r133,1129v1,25,2,63,4,112v-1,-25,-3,-63,4,-112r162,-1129r119,0r161,1129v1,25,3,63,4,112v0,-25,-1,-63,5,-112r133,-1129r137,0","w":1122},"X":{"d":"743,0r-143,0r-209,-643r-209,643r-139,0r0,-8r279,-793v-176,-507,-264,-761,-263,-764r146,0r188,594r195,-594r139,0r0,9r-260,747v185,537,277,806,276,809","w":786},"Y":{"d":"754,-1556r-190,633v-24,63,-56,169,-95,317r0,606r-139,0r0,-606v-8,-73,-88,-293,-95,-317r-190,-633r0,-9r141,0r215,783r213,-783r140,0r0,9","w":799},"Z":{"d":"649,0r-600,0r0,-74r440,-1368r-397,0r0,-123r557,0r0,72r-440,1370r440,0r0,123","w":705},"[":{"d":"129,-1454v-1,-64,47,-111,111,-111r266,0r0,123r-238,0r0,1567r238,0r0,123r-266,0v-64,1,-111,-47,-111,-111r0,-1591","w":594},"\\":{"d":"840,0r-133,0r-662,-1565r133,0","w":885},"]":{"d":"354,-1565v64,-1,113,47,113,111r0,1591v1,64,-49,111,-113,111r-266,0r0,-123r240,0r0,-1567r-240,0r0,-123r266,0","w":594},"^":{"d":"723,-1012r-113,0r-202,-387r-203,387r-109,0r0,-8r262,-545r105,0","w":819},"_":{"d":"739,410r-739,0r0,-111r739,0r0,111","w":739},"`":{"d":"627,-1059r-92,0r-246,-231r0,-4r188,0r150,229r0,6","w":819},"a":{"d":"659,0r-131,0r0,-27r-158,21v-65,8,-118,12,-157,12v-73,0,-109,-36,-109,-108r0,-355v0,-75,38,-112,113,-112r313,0r0,-293r-286,0r0,166r-129,0r0,-164v0,-75,37,-113,112,-113r320,0v75,0,112,38,112,113r0,860xm530,-121r0,-344r-297,0r0,350","w":768},"b":{"d":"668,-209v3,117,-90,209,-207,209r-352,0r0,-1565r133,0r0,619r158,-20v67,-9,119,-13,157,-13v74,0,111,36,111,109r0,661xm535,-229r0,-625r-293,8r0,729r184,0v73,0,109,-37,109,-112","w":776},"c":{"d":"649,-113v0,75,-37,113,-112,113r-316,0v-75,0,-112,-38,-112,-113r0,-747v0,-75,37,-113,112,-113r316,0v75,0,112,38,112,113r0,194r-131,0r0,-190r-276,0r0,739r276,0r0,-217r131,0r0,221","w":756},"d":{"d":"104,-764v-3,-117,90,-209,207,-209r219,0r0,-592r132,0r0,1565r-132,0r0,-27v-143,22,-222,33,-237,33v-112,2,-189,-89,-189,-201r0,-569xm530,-121r0,-735r-184,0v-73,0,-110,38,-110,113r0,520v0,75,37,112,110,112v17,0,79,-3,184,-10","w":772},"e":{"d":"653,-113v0,75,-37,113,-112,113r-320,0v-75,0,-112,-38,-112,-113r0,-747v0,-75,37,-113,112,-113r320,0v75,0,112,38,112,113r0,350r-45,47r-370,0r0,352r286,0r0,-178r129,0r0,176xm524,-569r0,-293r-286,0r0,293r286,0","w":764},"f":{"d":"477,-1448r-188,0r0,475r166,0r0,117r-166,0r0,856r-131,0r0,-856r-113,0r0,-117r113,0r0,-479v0,-75,37,-113,112,-113r207,0r0,117","w":487},"g":{"d":"104,-778v-2,-112,77,-204,189,-201v15,0,94,11,237,33r0,-27r132,0r0,1229v0,75,-38,113,-113,113r-316,0v-77,0,-118,-48,-115,-143r3,-99r131,0r0,129r278,0r0,-256r-219,0v-117,2,-207,-92,-207,-209r0,-569xm530,-117r0,-735v-105,-7,-167,-10,-184,-10v-73,0,-110,37,-110,112r0,521v0,75,37,112,110,112r184,0","w":772},"h":{"d":"668,0r-133,0r0,-854r-293,8r0,846r-133,0r0,-1565r133,0r0,619r158,-20v67,-9,119,-13,157,-13v74,0,111,36,111,109r0,870","w":774},"i":{"d":"250,-1186r-135,0r0,-168r135,0r0,168xm248,0r-131,0r0,-973r131,0r0,973","w":365},"j":{"d":"250,-1186r-135,0r0,-168r135,0r0,168xm248,256v0,75,-38,113,-113,113r-166,0r0,-117r148,0r0,-1225r131,0r0,1229","w":365},"k":{"d":"655,0r-145,0r-268,-496r0,496r-133,0r0,-1565r133,0r0,994r250,-402r143,0r0,4r-283,430","w":686},"l":{"d":"248,0r-131,0r0,-1565r131,0r0,1565","w":365},"m":{"d":"1087,0r-133,0r0,-854r-290,8r0,846r-132,0r0,-854r-290,8r0,846r-133,0r0,-973r133,0r0,27r156,-21v106,-9,194,-34,247,25r167,-23v73,-9,128,-14,165,-14v73,0,110,36,110,109r0,870","w":1194},"n":{"d":"668,0r-133,0r0,-854r-293,8r0,846r-133,0r0,-973r133,0r0,27r157,-21v64,-8,117,-12,158,-12v74,0,111,36,111,109r0,870","w":774},"o":{"d":"668,-113v0,75,-38,113,-113,113r-334,0v-75,0,-112,-38,-112,-113r0,-747v0,-75,37,-113,112,-113r334,0v75,0,113,38,113,113r0,747xm535,-117r0,-739r-293,0r0,739r293,0","w":776},"p":{"d":"668,-209v3,117,-90,209,-207,209r-219,0r0,369r-133,0r0,-1342r133,0r0,27r158,-20v67,-9,119,-13,157,-13v74,0,111,36,111,109r0,661xm535,-229r0,-625r-293,8r0,729r184,0v73,0,109,-37,109,-112","w":772},"q":{"d":"104,-778v-2,-112,77,-204,189,-201v15,0,94,11,237,33r0,-27r132,0r0,1342r-132,0r0,-369r-219,0v-117,2,-207,-92,-207,-209r0,-569xm530,-117r0,-735v-105,-7,-167,-10,-184,-10v-73,0,-110,37,-110,112r0,521v0,75,37,112,110,112r184,0","w":772},"r":{"d":"618,-653r-131,0r0,-201r-245,8r0,846r-133,0r0,-973r133,0r0,27v78,-12,188,-33,266,-33v73,0,110,36,110,109r0,217","w":678},"s":{"d":"633,-113v0,75,-38,113,-113,113r-305,0v-75,0,-113,-38,-113,-113r0,-221r131,0r0,219r269,0r0,-194r-348,-285v-73,-48,-50,-158,-50,-266v0,-75,38,-113,113,-113r301,0v75,0,113,38,113,113r0,194r-129,0r0,-192r-269,0r0,170r351,285v75,50,49,178,49,290","w":735},"t":{"d":"459,0r-189,0v-75,0,-112,-38,-112,-113r0,-743r-117,0r0,-117r117,0r0,-303r131,0r0,303r170,0r0,117r-170,0r0,739r170,0r0,117","w":520},"u":{"d":"666,0r-131,0r0,-27r-159,21v-132,15,-267,42,-267,-96r0,-871r131,0r0,854r295,-8r0,-846r131,0r0,973","w":774},"v":{"d":"657,-973r-241,975r-121,0r-242,-975r137,0r166,766r168,-766r133,0","w":711},"w":{"d":"979,-973r-201,975r-119,0r-143,-739r-143,739r-117,0r-201,-975r125,0r137,750r142,-750r116,0r142,750r137,-750r125,0","w":1034},"x":{"d":"637,0r-135,0r-164,-385r-166,385r-131,0r227,-500r-213,-473r135,0r150,357r154,-357r129,0r-213,469","w":678},"y":{"d":"657,-973r-234,965r-97,377r-131,0r98,-377r-240,-965r137,0r166,766r168,-766r133,0","w":711},"z":{"d":"575,0r-512,0r0,-61r355,-793r-318,0r0,-119r475,0r0,62r-356,792r356,0r0,119","w":655},"{":{"d":"512,130r98,-3r0,121r-174,0v-116,2,-205,-89,-205,-205r0,-563r-168,-156r0,-29r168,-155r0,-500v-2,-116,89,-205,205,-205r174,0r0,121r-98,-3v-94,0,-141,35,-141,104r0,464v0,41,-13,82,-49,110r-101,79v56,48,150,94,150,188r0,529v0,69,47,106,141,103","w":698},"|":{"d":"272,342r-127,0r0,-1907r127,0r0,1907","w":418},"}":{"d":"262,-1565v115,-3,205,90,205,205r0,500r168,155r0,29r-168,156r0,563v3,115,-90,205,-205,205r-174,0r0,-121r98,3v95,0,142,-34,142,-103r0,-529v-2,-93,94,-141,149,-188v-56,-48,-149,-94,-149,-189r0,-464v0,-69,-47,-107,-142,-104r-98,3r0,-121r174,0","w":698},"~":{"d":"864,-545v5,104,-108,96,-186,66r-377,-144r0,158r-131,0r0,-209v-5,-104,109,-94,186,-65r377,143r0,-158r131,0r0,209","w":1034},"\u00a0":{"w":401}}});
